Language model created by QuickLM on Sat Dec 30 07:08:54 EST 2017
Copyright (c) 1996-2010 Carnegie Mellon University and Alexander I. Rudnicky

The model is in standard ARPA format, designed by Doug Paul while he was at MITRE.

The code that was used to produce this language model is available in Open Source.
Please visit http://www.speech.cs.cmu.edu/tools/ for more information

The (fixed) discount mass is 0.5. The backoffs are computed using the ratio method.
This model based on a corpus of 6 sentences and 12 words

\data\
ngram 1=12
ngram 2=16
ngram 3=12

\1-grams:
-0.9031 </s> -0.3010
-0.9031 <s> -0.2430
-1.6812 DECREASE -0.2825
-1.6812 INCREASE -0.2825
-1.3802 MUSIC -0.2430
-1.6812 NEXT -0.2919
-1.6812 OPEN -0.2919
-1.6812 PLAY -0.2825
-1.6812 SPOTIFY -0.2430
-1.6812 STOP -0.2825
-1.6812 TRACK -0.2430
-1.3802 VOLUME -0.2430

\2-grams:
-1.0792 <s> DECREASE 0.0000
-1.0792 <s> INCREASE 0.0000
-1.0792 <s> NEXT 0.0000
-1.0792 <s> OPEN 0.0000
-1.0792 <s> PLAY 0.0000
-1.0792 <s> STOP 0.0000
-0.3010 DECREASE VOLUME 0.0000
-0.3010 INCREASE VOLUME 0.0000
-0.3010 MUSIC </s> -0.3010
-0.3010 NEXT TRACK 0.0000
-0.3010 OPEN SPOTIFY 0.0000
-0.3010 PLAY MUSIC 0.0000
-0.3010 SPOTIFY </s> -0.3010
-0.3010 STOP MUSIC 0.0000
-0.3010 TRACK </s> -0.3010
-0.3010 VOLUME </s> -0.3010

\3-grams:
-0.3010 <s> DECREASE VOLUME
-0.3010 <s> INCREASE VOLUME
-0.3010 <s> NEXT TRACK
-0.3010 <s> OPEN SPOTIFY
-0.3010 <s> PLAY MUSIC
-0.3010 <s> STOP MUSIC
-0.3010 DECREASE VOLUME </s>
-0.3010 INCREASE VOLUME </s>
-0.3010 NEXT TRACK </s>
-0.3010 OPEN SPOTIFY </s>
-0.3010 PLAY MUSIC </s>
-0.3010 STOP MUSIC </s>

\end\
