Language model created by QuickLM on Sun Dec 31 04:07:15 EST 2017
Copyright (c) 1996-2010 Carnegie Mellon University and Alexander I. Rudnicky

The model is in standard ARPA format, designed by Doug Paul while he was at MITRE.

The code that was used to produce this language model is available in Open Source.
Please visit http://www.speech.cs.cmu.edu/tools/ for more information

The (fixed) discount mass is 0.5. The backoffs are computed using the ratio method.
This model based on a corpus of 9 sentences and 18 words

\data\
ngram 1=18
ngram 2=25
ngram 3=18

\1-grams:
-0.9031 </s> -0.3010
-0.9031 <s> -0.2430
-1.8573 BOLIBOMPA -0.2430
-1.8573 DECREASE -0.2888
-1.8573 EXIT -0.2950
-1.8573 FORECAST -0.2430
-1.8573 INCREASE -0.2888
-1.5563 MUSIC -0.2430
-1.8573 NEXT -0.2950
-1.8573 OPEN -0.2950
-1.8573 PLAY -0.2888
-1.8573 SPOTIFY -0.2430
-1.8573 START -0.2950
-1.8573 STOP -0.2888
-1.8573 TRACK -0.2430
-1.8573 VOICECONTROL -0.2430
-1.5563 VOLUME -0.2430
-1.8573 WEATHER -0.2950

\2-grams:
-1.2553 <s> DECREASE 0.0000
-1.2553 <s> EXIT 0.0000
-1.2553 <s> INCREASE 0.0000
-1.2553 <s> NEXT 0.0000
-1.2553 <s> OPEN 0.0000
-1.2553 <s> PLAY 0.0000
-1.2553 <s> START 0.0000
-1.2553 <s> STOP 0.0000
-1.2553 <s> WEATHER 0.0000
-0.3010 BOLIBOMPA </s> -0.3010
-0.3010 DECREASE VOLUME 0.0000
-0.3010 EXIT VOICECONTROL 0.0000
-0.3010 FORECAST </s> -0.3010
-0.3010 INCREASE VOLUME 0.0000
-0.3010 MUSIC </s> -0.3010
-0.3010 NEXT TRACK 0.0000
-0.3010 OPEN SPOTIFY 0.0000
-0.3010 PLAY MUSIC 0.0000
-0.3010 SPOTIFY </s> -0.3010
-0.3010 START BOLIBOMPA 0.0000
-0.3010 STOP MUSIC 0.0000
-0.3010 TRACK </s> -0.3010
-0.3010 VOICECONTROL </s> -0.3010
-0.3010 VOLUME </s> -0.3010
-0.3010 WEATHER FORECAST 0.0000

\3-grams:
-0.3010 <s> DECREASE VOLUME
-0.3010 <s> EXIT VOICECONTROL
-0.3010 <s> INCREASE VOLUME
-0.3010 <s> NEXT TRACK
-0.3010 <s> OPEN SPOTIFY
-0.3010 <s> PLAY MUSIC
-0.3010 <s> START BOLIBOMPA
-0.3010 <s> STOP MUSIC
-0.3010 <s> WEATHER FORECAST
-0.3010 DECREASE VOLUME </s>
-0.3010 EXIT VOICECONTROL </s>
-0.3010 INCREASE VOLUME </s>
-0.3010 NEXT TRACK </s>
-0.3010 OPEN SPOTIFY </s>
-0.3010 PLAY MUSIC </s>
-0.3010 START BOLIBOMPA </s>
-0.3010 STOP MUSIC </s>
-0.3010 WEATHER FORECAST </s>

\end\
