Language model created by QuickLM on Sat Dec 30 12:11:34 EST 2017
Copyright (c) 1996-2010 Carnegie Mellon University and Alexander I. Rudnicky

The model is in standard ARPA format, designed by Doug Paul while he was at MITRE.

The code that was used to produce this language model is available in Open Source.
Please visit http://www.speech.cs.cmu.edu/tools/ for more information

The (fixed) discount mass is 0.5. The backoffs are computed using the ratio method.
This model based on a corpus of 8 sentences and 16 words

\data\
ngram 1=16
ngram 2=22
ngram 3=16

\1-grams:
-0.9031 </s> -0.3010
-0.9031 <s> -0.2430
-1.8062 BOLIBOMPA -0.2430
-1.8062 DECREASE -0.2872
-1.8062 EXIT -0.2942
-1.8062 INCREASE -0.2872
-1.5051 MUSIC -0.2430
-1.8062 NEXT -0.2942
-1.8062 OPEN -0.2942
-1.8062 PLAY -0.2872
-1.8062 SPOTIFY -0.2430
-1.8062 START -0.2942
-1.8062 STOP -0.2872
-1.8062 TRACK -0.2430
-1.8062 VOICECONTROL -0.2430
-1.5051 VOLUME -0.2430

\2-grams:
-1.2041 <s> DECREASE 0.0000
-1.2041 <s> EXIT 0.0000
-1.2041 <s> INCREASE 0.0000
-1.2041 <s> NEXT 0.0000
-1.2041 <s> OPEN 0.0000
-1.2041 <s> PLAY 0.0000
-1.2041 <s> START 0.0000
-1.2041 <s> STOP 0.0000
-0.3010 BOLIBOMPA </s> -0.3010
-0.3010 DECREASE VOLUME 0.0000
-0.3010 EXIT VOICECONTROL 0.0000
-0.3010 INCREASE VOLUME 0.0000
-0.3010 MUSIC </s> -0.3010
-0.3010 NEXT TRACK 0.0000
-0.3010 OPEN SPOTIFY 0.0000
-0.3010 PLAY MUSIC 0.0000
-0.3010 SPOTIFY </s> -0.3010
-0.3010 START BOLIBOMPA 0.0000
-0.3010 STOP MUSIC 0.0000
-0.3010 TRACK </s> -0.3010
-0.3010 VOICECONTROL </s> -0.3010
-0.3010 VOLUME </s> -0.3010

\3-grams:
-0.3010 <s> DECREASE VOLUME
-0.3010 <s> EXIT VOICECONTROL
-0.3010 <s> INCREASE VOLUME
-0.3010 <s> NEXT TRACK
-0.3010 <s> OPEN SPOTIFY
-0.3010 <s> PLAY MUSIC
-0.3010 <s> START BOLIBOMPA
-0.3010 <s> STOP MUSIC
-0.3010 DECREASE VOLUME </s>
-0.3010 EXIT VOICECONTROL </s>
-0.3010 INCREASE VOLUME </s>
-0.3010 NEXT TRACK </s>
-0.3010 OPEN SPOTIFY </s>
-0.3010 PLAY MUSIC </s>
-0.3010 START BOLIBOMPA </s>
-0.3010 STOP MUSIC </s>

\end\
